<?xml version="1.0"?>
<opencv_storage>
<SVM type_id="opencv-ml-svm">
  <svm_type>C_SVC</svm_type>
  <kernel><type>LINEAR</type></kernel>
  <C>1.</C>
  <term_criteria><epsilon>2.2204460492503131e-16</epsilon>
    <iterations>100</iterations></term_criteria>
  <var_all>81</var_all>
  <var_count>81</var_count>
  <class_count>10</class_count>
  <class_labels type_id="opencv-matrix">
    <rows>1</rows>
    <cols>10</cols>
    <dt>i</dt>
    <data>
      0 1 2 3 4 5 6 7 8 9</data></class_labels>
  <sv_total>45</sv_total>
  <support_vectors>
    <_>
      -5.16465108e-04 -5.16465108e-04 -5.16465108e-04 2.40834039e-02
      -5.16465108e-04 1.76258776e-02 -1.00269392e-02 2.35420093e-02
      -5.16465108e-04 9.17849102e-05 -2.50859763e-02 9.17849102e-05
      -2.88729731e-04 -1.99027676e-02 -3.98092940e-02 9.17849102e-05
      5.47602810e-02 9.17849102e-05 2.33825017e-03 3.65643911e-02
      2.58192271e-02 4.88819368e-02 -1.95828397e-02 3.71718965e-02
      2.33825017e-03 2.33825017e-03 2.33825017e-03 -8.08460772e-01
      -5.49110532e-01 4.12862092e-01 -5.47848105e-01 4.98635322e-01
      -3.82093787e-01 1.95168674e-01 7.45299533e-02 -8.36970747e-01
      -6.47756040e-01 3.76509875e-01 1.02109484e-01 1.45909294e-01
      2.52732962e-01 4.02912408e-01 4.04206157e-01 4.70019996e-01
      -5.96647978e-01 -1.49217176e+00 8.16568807e-02 5.97045183e-01
      -1.94880784e-01 5.78612566e-01 -4.04285431e-01 5.78612566e-01
      8.93996060e-02 -1.77879894e+00 -7.07420427e-03 -3.65238860e-02
      -6.94173276e-02 -9.28350259e-04 1.28735034e-02 -3.66726458e-01
      1.28735034e-02 1.28735034e-02 1.28735034e-02 -1.19311661e-01
      2.46488050e-01 1.29260242e-01 5.24781384e-02 1.54568553e-01
      1.22266136e-01 -1.03972614e-01 1.91286877e-01 -1.19311661e-01
      -2.08645081e-03 -2.08645081e-03 -2.08645081e-03 -3.57996911e-01
      8.50970373e-02 -2.94123869e-02 -6.88462928e-02 5.23462053e-03
      -2.08645081e-03</_>
    <_>
      8.34818650e-03 8.34818650e-03 8.34818650e-03 -2.92366922e-01
      8.34818650e-03 -5.57027850e-03 -5.86346257e-03 8.56682472e-03
      8.34818650e-03 3.44678834e-02 -9.70497355e-02 3.44678834e-02
      -6.67907149e-02 -2.12345824e-01 -2.14558408e-01 3.44678834e-02
      2.08749652e-01 3.44678834e-02 4.61275019e-02 -4.94025320e-01
      -4.76657331e-01 8.25932249e-02 1.39672056e-01 -3.31433058e-01
      4.61275019e-02 4.61275019e-02 4.61275019e-02 -5.90357780e-01
      -4.20249611e-01 6.13543153e-01 -1.20717156e+00 6.45221055e-01
      -9.44801927e-01 2.34811321e-01 -3.69374484e-01 -7.05389857e-01
      -6.14222825e-01 -5.32572508e-01 -4.90259320e-01 1.04685211e+00
      -1.19046226e-01 6.46555364e-01 4.47851658e-01 3.89733702e-01
      1.41702622e-01 -1.10165215e+00 -1.26447439e+00 6.31415784e-01
      -1.11119695e-01 5.19928634e-01 -1.44464397e+00 7.64598131e-01
      8.25697482e-02 -4.71262395e-01 4.95679257e-03 -2.56432414e-01
      -1.58921573e-02 8.48368779e-02 1.95040088e-02 -4.52499211e-01
      1.95040088e-02 1.95040088e-02 1.95040088e-02 3.35833192e-01
      -1.75104821e+00 3.35833192e-01 2.02469930e-01 -1.61188424e-01
      -4.99702469e-02 3.35833192e-01 -7.87039995e-02 3.35833192e-01
      4.06811088e-02 4.06811088e-02 4.06811088e-02 -6.49083376e-01
      4.06811088e-02 -6.93350732e-01 -4.13269609e-01 -1.00511633e-01
      1.47551998e-01</_>
    <_>
      1.39225079e-02 1.39225079e-02 1.39225079e-02 -6.23857558e-01
      1.39225079e-02 1.10602919e-02 -2.99971029e-02 2.01576520e-02
      7.91349337e-02 7.53966644e-02 -9.45420638e-02 7.53966644e-02
      -2.13710412e-01 -6.86210811e-01 -5.43362916e-01 7.53966644e-02
      3.33906084e-01 7.53966644e-02 1.95433851e-02 -6.66741654e-02
      2.43195649e-02 -1.20495394e-01 1.29397392e-01 -7.03381121e-01
      1.95433851e-02 1.95433851e-02 1.95433851e-02 -7.24409759e-01
      1.68836862e-02 5.78744054e-01 -7.04399407e-01 6.64517283e-01
      -1.24917746e+00 2.28196695e-01 -5.26060522e-01 -8.73083532e-01
      2.01584667e-01 -1.33497179e-01 -1.04687452e-01 5.56131780e-01
      -1.86265334e-01 4.92477976e-02 -3.07080448e-01 -1.07428581e-01
      -1.59785166e-01 -3.95504951e-01 -2.25042820e-01 7.69952238e-01
      -6.33704305e-01 5.33408403e-01 -2.01162791e+00 5.54208875e-01
      1.07987262e-01 -4.28774118e-01 8.08457006e-03 -1.30787373e-01
      -2.23373179e-03 1.52486414e-01 8.08457006e-03 -2.97823071e-01
      8.08457006e-03 8.08457006e-03 8.08457006e-03 3.05564225e-01
      -5.01571417e-01 4.14726287e-01 1.83457106e-01 -1.40322983e-01
      -4.59570080e-01 3.05564225e-01 -1.11693156e+00 3.05564225e-01
      5.79158869e-03 5.79158869e-03 5.79158869e-03 -5.25474072e-01
      5.79158869e-03 -2.59598255e-01 -3.93054217e-01 -3.76628250e-01
      3.02007139e-01</_>
    <_>
      -3.36748245e-03 -3.36748245e-03 -3.36748245e-03 -5.95808588e-02
      6.71117101e-03 1.88437223e-01 6.32758662e-02 8.95937532e-02
      -3.36748245e-03 2.76968390e-01 -1.23415327e+00 2.76968390e-01
      5.72350062e-02 -5.32261312e-01 -3.58744830e-01 2.76968390e-01
      5.27736843e-02 2.76968390e-01 1.00671835e-02 -6.43242672e-02
      4.50286530e-02 1.18804023e-01 -4.28236499e-02 -1.48543969e-01
      1.00671835e-02 1.00671835e-02 1.00671835e-02 -1.17941368e+00
      -1.81214857e+00 7.56626368e-01 -6.69102669e-01 8.89684081e-01
      5.89888170e-02 4.95790631e-01 3.67859632e-01 -8.80831420e-01
      -4.82257046e-02 -1.96715772e-01 -3.44484337e-02 5.06864488e-02
      -4.36128341e-02 -5.14655607e-03 1.13171332e-01 1.83680877e-01
      -3.02256793e-01 -9.94699299e-01 7.39452392e-02 7.38789201e-01
      -1.40653208e-01 4.33778703e-01 -8.97087693e-01 4.65739548e-01
      -9.16884780e-01 -1.32923269e+00 -1.72418437e-03 -2.36331657e-01
      -1.69197679e-01 2.71526184e-02 1.82235241e-02 -3.53191972e-01
      1.82235241e-02 1.82235241e-02 1.82235241e-02 1.98699415e-01
      -4.17965800e-01 2.49462366e-01 -8.92376602e-02 2.19429493e-01
      -5.10215461e-02 1.98699415e-01 -8.91373992e-01 1.98699415e-01
      3.24962139e-02 3.24962139e-02 3.24962139e-02 -4.05191988e-01
      5.63985407e-02 -8.13774467e-02 -2.71336734e-01 -4.91660088e-01
      3.24962139e-02</_>
    <_>
      -2.45326210e-05 -2.45326210e-05 -2.45326210e-05 -2.99655110e-01
      4.81313132e-02 1.34033591e-01 8.29587877e-03 -3.36328596e-02
      8.92367898e-05 1.39720678e-01 -7.12531283e-02 1.60342366e-01
      -1.02743432e-01 -8.53336096e-01 -6.07505798e-01 1.39720678e-01
      -2.55105913e-01 1.39720678e-01 4.04022597e-02 -6.72157332e-02
      4.84658144e-02 -8.03779289e-02 3.94611247e-02 -7.75887072e-01
      4.04022597e-02 4.04022597e-02 4.38075066e-02 -7.26205647e-01
      4.95552160e-02 3.15334231e-01 -1.15956175e+00 1.49780869e-01
      -6.31972015e-01 5.30760884e-01 2.93920994e-01 -5.71005344e-01
      3.52408469e-01 6.57796502e-01 4.97646809e-01 -2.62605995e-01
      -3.42918575e-01 -3.09382170e-01 -4.75372583e-01 -1.20058700e-01
      1.84870735e-02 1.66940495e-01 1.14372484e-01 3.23364496e-01
      -1.23740852e+00 3.87077242e-01 -1.34446549e+00 3.87077242e-01
      3.15478384e-01 -4.36508022e-02 7.04001859e-02 -6.23795353e-02
      8.35963525e-03 -2.23434582e-01 -3.11790290e-03 -6.94133341e-01
      -3.11790290e-03 -3.11790290e-03 1.23889230e-01 2.88618743e-01
      -3.95136803e-01 2.96883494e-01 2.17372850e-02 -2.95774788e-01
      -6.84883654e-01 2.88618743e-01 -8.63967597e-01 2.88618743e-01
      8.08828045e-03 2.46334868e-03 2.46334868e-03 -3.40198219e-01
      3.66705353e-03 8.36362690e-02 -3.60482074e-02 -9.78878438e-02
      4.24862280e-02</_>
    <_>
      -7.05865026e-03 -7.05865026e-03 -7.05865026e-03 -9.04407992e-04
      1.04596317e-02 1.95512176e-01 5.30371927e-02 1.04551338e-01
      1.85173994e-03 1.21546201e-01 -7.08111465e-01 1.21546201e-01
      3.69574837e-02 1.80041313e-01 5.13825379e-02 1.37110442e-01
      2.32137670e-03 1.21546201e-01 -1.99358701e-03 -8.50261301e-02
      8.15328658e-02 1.38089985e-01 6.15824461e-02 -2.91848034e-01
      -1.99358701e-03 -1.99358701e-03 -1.99358701e-03 -9.65761170e-02
      -8.99236619e-01 3.77652884e-01 -1.90953696e+00 4.63426113e-01
      1.60547197e-02 5.34717083e-01 4.96066272e-01 2.57211030e-01
      3.27513479e-02 -1.16008841e-01 -4.13413905e-02 -1.03837950e-02
      2.00270399e-01 2.19826594e-01 -4.49638247e-01 -3.04077417e-02
      -3.06434631e-02 -4.33200568e-01 -4.83477488e-02 4.84913170e-01
      -7.23083377e-01 5.55311799e-01 -1.69250441e+00 5.55311799e-01
      -4.49468583e-01 -3.75530511e-01 2.14212880e-01 -1.66207060e-01
      -3.24608892e-01 -6.89991653e-01 1.54715069e-02 -6.79758310e-01
      1.54715069e-02 1.54715069e-02 1.18334100e-01 2.95075685e-01
      -1.11924298e-01 3.09567928e-01 -1.66146621e-01 -3.27090651e-01
      -6.33508325e-01 2.95075685e-01 -1.05174088e+00 2.95075685e-01
      2.88847126e-02 2.88847126e-02 2.88847126e-02 -4.16977197e-01
      2.88847126e-02 -2.68524028e-02 -2.68788755e-01 -2.70878404e-01
      2.88847126e-02</_>
    <_>
      5.31157069e-02 9.84084676e-04 9.84084676e-04 -3.45417500e-01
      9.84084676e-04 -1.47816941e-01 1.25008146e-03 -2.37434432e-02
      9.84084676e-04 4.91843298e-02 -4.97122929e-02 4.91843298e-02
      -1.49661750e-01 -2.94107050e-01 -3.34723324e-01 4.91843298e-02
      -1.00916579e-01 4.91843298e-02 7.67374132e-03 -1.99899420e-01
      8.38646814e-02 1.59460068e-01 -6.45204913e-03 -4.63585630e-02
      7.67374132e-03 7.67374132e-03 7.67374132e-03 -1.48144037e-01
      -3.31448883e-01 2.22598433e-01 -1.02812624e+00 1.07829913e-03
      -5.80471873e-01 7.39747882e-01 1.39391854e-01 -2.01732993e-01
      -1.01354867e-01 -6.34113401e-02 2.29599811e-02 3.12425736e-02
      -1.69434384e-01 4.63730097e-01 -1.98795602e-01 3.02915275e-01
      -1.28066108e-01 -1.60438561e+00 -1.78842962e+00 8.47497523e-01
      -1.76240444e-01 6.39286399e-01 -5.68781942e-02 7.74289966e-01
      9.70626250e-02 -7.25405574e-01 1.24112725e-01 -1.05467331e+00
      -2.72649109e-01 1.03635639e-01 7.13424087e-02 -9.21274602e-01
      6.09575473e-02 6.09575473e-02 1.41507775e-01 2.17345133e-01
      -7.49164581e-01 2.17345133e-01 -6.19797647e-01 -6.61022365e-01
      7.68368021e-02 2.17345133e-01 1.19864075e-02 2.17345133e-01
      6.66890154e-03 6.66890154e-03 6.66890154e-03 -3.08188647e-01
      1.32809401e-01 9.25050154e-02 -3.44666131e-02 -5.40499203e-03
      6.66890154e-03</_>
    <_>
      4.50183172e-03 4.50183172e-03 4.50183172e-03 -2.55188465e-01
      4.50183172e-03 1.63720712e-01 8.16202909e-03 -7.74310082e-02
      4.50183172e-03 1.52222365e-01 -7.92999864e-01 1.52222365e-01
      1.63685188e-01 2.02993900e-01 -3.21204066e-02 1.95486784e-01
      -2.35554248e-01 1.52222365e-01 -1.83909088e-02 -8.13950375e-02
      5.16616218e-02 1.16188727e-01 1.05929978e-01 -3.22990417e-01
      -1.83909088e-02 -1.83909088e-02 -1.83909088e-02 -5.56644917e-01
      -9.00127888e-02 4.76204306e-01 -1.04012060e+00 5.45727968e-01
      -1.06757915e+00 2.27009401e-01 -2.82518029e-01 -4.45239067e-01
      6.67639598e-02 -7.90952612e-03 5.62294014e-02 -1.24267042e-01
      -4.11478132e-02 8.76795202e-02 -1.48637310e-01 -2.78757662e-01
      -4.91130799e-02 -3.10981184e-01 1.21384867e-01 6.22353196e-01
      -6.61302924e-01 6.16619885e-01 -2.19761300e+00 6.16619885e-01
      -1.14130579e-01 -4.19569701e-01 1.36466980e-01 -1.72332853e-01
      2.08417270e-02 1.35521799e-01 -4.49245004e-03 -5.38427293e-01
      -4.49245004e-03 -4.49245004e-03 -4.49245004e-03 2.26660833e-01
      -1.91669986e-01 3.01335812e-01 6.12613931e-02 2.47484129e-02
      -1.07921563e-01 2.26660833e-01 -1.03410113e+00 2.26660833e-01
      3.27530093e-02 3.27530093e-02 3.27530093e-02 -4.80929106e-01
      3.27530093e-02 -7.28664249e-02 -1.84218094e-01 -3.46125573e-01
      3.27530093e-02</_>
    <_>
      -1.24175125e-03 -1.24175125e-03 -1.24175125e-03 -2.43187413e-01
      7.95958564e-02 8.76819268e-02 -3.18281166e-02 -1.24380574e-01
      -1.24175125e-03 1.53632894e-01 -1.80752128e-01 1.70993015e-01
      1.05860345e-01 -9.15550664e-02 -3.60205740e-01 1.72199294e-01
      -5.85965216e-01 1.53632894e-01 1.46048507e-02 -9.67461690e-02
      -1.75932109e-01 -7.93707743e-02 1.85312927e-01 -3.13718587e-01
      1.46048507e-02 1.46048507e-02 1.46048507e-02 -6.49583995e-01
      -5.57899699e-02 4.42077756e-01 -9.11043882e-01 5.27850986e-01
      -8.58268619e-01 2.46183917e-01 -7.69753531e-02 -4.22854364e-01
      -9.40003842e-02 -1.00562945e-01 2.42122278e-01 3.43192250e-01
      1.05167367e-01 3.40978652e-02 -3.41446549e-01 3.82287167e-02
      -2.57295936e-01 -1.76969588e+00 -6.86144710e-01 7.36456454e-01
      -4.65059936e-01 6.86846554e-01 -4.01659757e-01 7.23875284e-01
      -2.65453476e-02 -6.56901479e-01 1.33887038e-01 -2.06190377e-01
      -3.12745832e-02 1.24610201e-01 2.90159732e-02 -5.57730556e-01
      -5.64974127e-03 -5.64974127e-03 -5.64974127e-03 1.25271529e-01
      -8.68698120e-01 2.80541450e-01 3.97183299e-02 9.67113897e-02
      1.11868158e-02 1.94083527e-01 -2.99410187e-02 1.25271529e-01
      -1.67723764e-02 -1.67723764e-02 -1.67723764e-02 -2.93377519e-01
      1.67351961e-01 -1.88873168e-02 2.05628071e-02 -5.21396175e-02
      1.90600399e-02</_>
    <_>
      1.94448251e-02 1.94448251e-02 1.94448251e-02 -5.51791131e-01
      1.94448251e-02 -9.23950002e-02 -1.37748927e-01 -4.55687568e-02
      8.89384449e-02 2.22515613e-02 1.42578393e-01 2.22515613e-02
      -1.48764417e-01 -1.99130312e-01 -5.40718287e-02 3.73126827e-02
      1.78033844e-01 2.22515613e-02 8.55864733e-02 -6.63162649e-01
      -5.52619517e-01 -1.80945080e-02 8.73557329e-02 -3.76543999e-01
      8.55864733e-02 8.55864733e-02 9.42278430e-02 2.62291342e-01
      5.19765854e-01 3.05652507e-02 -2.98845291e-01 3.05652507e-02
      -3.80203635e-01 -2.93323547e-01 -2.27093101e-01 4.40204829e-01
      4.32578385e-01 -1.03520322e+00 -8.26513350e-01 4.24036801e-01
      -3.83564919e-01 -4.04430509e-01 -3.87553722e-01 5.63299954e-02
      1.00282848e+00 1.42515337e+00 -1.00405073e+00 -8.48538935e-01
      -3.56295288e-01 -2.83765763e-01 -3.80568147e-01 -1.34966010e-02
      -1.45617742e-02 1.81631386e+00 1.84359681e-02 -1.39857024e-01
      4.51089395e-03 2.22398043e-02 1.84359681e-02 -3.00387532e-01
      1.84359681e-02 1.84359681e-02 1.84359681e-02 4.67220664e-01
      -1.73091030e+00 1.44394234e-01 -8.80720168e-02 -2.68306613e-01
      -1.80879697e-01 3.74810129e-01 -4.65568185e-01 4.67220664e-01
      6.93046376e-02 5.88594079e-02 5.88594079e-02 -2.00359583e-01
      -1.94249839e-01 -4.39352751e-01 -1.22158118e-01 -1.45446330e-01
      1.27093509e-01</_>
    <_>
      3.67911756e-02 3.67911756e-02 3.67911756e-02 -5.13832092e-01
      3.67911756e-02 -2.14718252e-01 -2.99763769e-01 -7.36957639e-02
      1.74647599e-01 1.11636177e-01 2.73967236e-01 1.11636177e-01
      -3.71271551e-01 -6.93311691e-01 -4.61582780e-01 1.11636177e-01
      -2.55022850e-02 1.11636177e-01 7.46836886e-02 -3.21538240e-01
      -3.20326120e-01 -3.07460576e-01 1.49205834e-01 -7.24935770e-01
      7.46836886e-02 7.46836886e-02 7.46836886e-02 1.37373745e-01
      4.80724752e-01 -3.74467596e-02 2.05470055e-01 -3.74467596e-02
      -3.92971098e-01 -4.09322172e-01 -2.10749254e-01 4.94947940e-01
      7.36877918e-01 -4.44455534e-01 -4.76113893e-02 2.14505300e-01
      -5.10819197e-01 -1.01001370e+00 -8.83098304e-01 -4.66465712e-01
      7.36877918e-01 1.24373066e+00 -3.49301815e-01 -4.96800363e-01
      -6.63790226e-01 -2.13300586e-02 -5.20596087e-01 -1.16848372e-01
      -3.94127607e-01 1.35796988e+00 1.01493131e-02 -9.10926089e-02
      4.64837700e-02 7.17939287e-02 -7.88470171e-03 -1.85912520e-01
      1.01493131e-02 1.01493131e-02 1.01493131e-02 3.36994469e-01
      -7.65845716e-01 3.43522161e-01 -4.31453586e-02 -3.07917416e-01
      -3.22479308e-01 2.31251702e-01 -8.88878465e-01 3.36994469e-01
      3.58304381e-02 3.58304381e-02 3.58304381e-02 -1.86131209e-01
      -1.69275880e-01 -2.66570121e-01 -2.86672324e-01 -3.34797204e-01
      2.66259581e-01</_>
    <_>
      -3.43757048e-02 -3.43757048e-02 -3.43757048e-02 8.34531933e-02
      6.64376840e-02 6.85337037e-02 1.83493979e-02 2.17350256e-02
      6.78834245e-02 3.64197254e-01 -1.56747162e+00 3.64197254e-01
      3.13037962e-01 -8.23932946e-01 -2.16979265e-01 5.71403563e-01
      -2.09476054e-01 3.64197254e-01 5.86851127e-02 -4.63463634e-01
      -1.13209188e-01 -1.80730253e-01 -3.67940292e-02 -6.02204680e-01
      5.86851127e-02 5.86851127e-02 5.86851127e-02 -9.18808460e-01
      -1.20653951e+00 3.05886030e-01 5.80777287e-01 3.05886030e-01
      6.06884480e-01 1.13285728e-01 2.93214738e-01 4.68404680e-01
      9.87715781e-01 -1.22840977e+00 -1.94816768e-01 -1.80921271e-01
      -4.29629922e-01 -7.13072300e-01 -1.27494109e+00 -6.27352417e-01
      9.87715781e-01 1.16252530e+00 -4.52592343e-01 -7.44673491e-01
      -1.59326881e-01 1.16301486e-02 -1.74672112e-01 -1.88551068e-01
      -9.61853862e-01 7.19964385e-01 5.16651059e-03 -2.88636088e-01
      3.45386080e-02 7.15628862e-02 6.72042295e-02 -2.15950862e-01
      5.16651059e-03 5.16651059e-03 5.16651059e-03 6.77887857e-01
      -1.18229795e+00 -1.60081327e-01 -1.26287520e-01 1.37832388e-01
      -4.26241666e-01 3.51557523e-01 -1.66104841e+00 6.77887857e-01
      2.76308022e-02 2.76308022e-02 2.76308022e-02 -1.12317368e-01
      -2.41503567e-02 -8.25931281e-02 -5.02438664e-01 -5.28030336e-01
      2.76308022e-02</_>
    <_>
      6.17559208e-03 6.17559208e-03 6.17559208e-03 -1.91519842e-01
      2.16681212e-02 -6.70445561e-02 -2.00910140e-02 -7.26654157e-02
      6.19972078e-03 4.50073071e-02 -3.86619335e-03 4.93808575e-02
      -2.03044459e-01 -3.81409198e-01 -2.14296982e-01 1.27572671e-01
      -1.29960477e-01 4.50073071e-02 4.64872532e-02 -1.42143011e-01
      -7.37917721e-02 -2.48454660e-01 1.66750431e-01 -8.05208564e-01
      4.64872532e-02 4.64872532e-02 4.72094566e-02 6.82787299e-02
      1.25007033e-01 -8.64641666e-02 -4.42769289e-01 -1.11416347e-01
      -3.34262438e-02 1.52992904e-01 6.79769963e-02 4.16853964e-01
      6.80257380e-01 6.97823167e-02 1.07509583e-01 -1.30962655e-01
      -5.73115528e-01 -7.88710535e-01 -7.06965446e-01 -5.00690341e-01
      5.58241069e-01 1.00823951e+00 -4.25719395e-02 -5.74777782e-01
      -1.01618874e+00 -1.15233576e-02 -4.77687836e-01 -9.35792848e-02
      7.51824155e-02 1.39852262e+00 6.02335529e-03 -6.48496076e-02
      -5.28275594e-02 -1.72116131e-01 -1.11735472e-02 -1.68003365e-01
      -1.11735472e-02 -1.11735472e-02 1.11380771e-01 3.56306762e-01
      -4.90024507e-01 9.50599462e-02 -2.29109749e-01 -3.39727432e-01
      -4.09689903e-01 2.69927651e-01 -8.92035782e-01 3.56306762e-01
      2.49778070e-02 1.95557158e-02 1.95557158e-02 -3.38265538e-01
      8.72319341e-02 -4.51412685e-02 -1.67040661e-01 -2.60693431e-01
      1.95557158e-02</_>
    <_>
      -6.01113169e-03 -2.15312783e-02 -2.15312783e-02 -2.12227806e-01
      4.66639288e-02 -9.93687809e-02 1.20427143e-02 4.36464287e-02
      8.50272030e-02 8.38946104e-02 -5.56554615e-01 8.38946104e-02
      -3.87902372e-02 5.25913499e-02 8.73057917e-02 5.40035546e-01
      -2.48285890e-01 8.38946104e-02 2.05482938e-03 -2.61950254e-01
      -1.28741384e-01 -1.20725222e-01 3.45682979e-01 -7.37227082e-01
      -6.69755787e-03 -6.69755787e-03 -6.69755787e-03 3.51096123e-01
      7.36980066e-02 -5.83043844e-02 -4.78738844e-01 -5.83043844e-02
      -1.66133240e-01 2.10106540e-02 4.44246560e-01 9.79665160e-01
      6.40490890e-01 -5.01823723e-01 8.31176490e-02 -7.83343315e-02
      -2.95971602e-01 -8.82662058e-01 -5.03647268e-01 -2.56748945e-01
      6.55889750e-01 1.01427364e+00 -5.19202709e-01 -5.67558408e-01
      -8.80805671e-01 1.75605297e-01 -7.25416601e-01 7.62319341e-02
      -5.63252151e-01 1.36865103e+00 1.00706667e-01 -6.49823695e-02
      -2.11294964e-01 -4.45047438e-01 -3.87481204e-03 -1.62536636e-01
      -3.87481204e-03 -3.87481204e-03 1.02890141e-01 4.57298070e-01
      -4.59340245e-01 1.18702993e-01 -4.27729368e-01 -6.62405372e-01
      -7.66463161e-01 3.58897090e-01 -9.40669298e-01 4.57298070e-01
      4.83744293e-02 4.83744293e-02 4.83744293e-02 4.37534228e-02
      -1.15955591e-01 -6.74664453e-02 -2.41867095e-01 -3.97991329e-01
      4.83744293e-02</_>
    <_>
      6.90161064e-02 1.68844815e-02 1.68844815e-02 -4.70626026e-01
      1.68844815e-02 -3.88356686e-01 -8.08707029e-02 -1.47992134e-01
      1.68844815e-02 2.37498293e-03 2.95711458e-01 2.37498293e-03
      -1.72634557e-01 -2.36906961e-01 -3.89879197e-01 2.37498293e-03
      -1.47656158e-01 2.37498293e-03 2.63229874e-03 -2.58962452e-01
      -3.53558771e-02 -3.17609571e-02 5.14276437e-02 -1.48682699e-01
      2.63229874e-03 2.40625143e-02 2.63229874e-03 3.88021052e-01
      7.09337950e-01 -1.46193460e-01 -5.82092814e-02 -5.12637973e-01
      -5.66922605e-01 3.83989885e-02 2.42338255e-01 7.06861854e-01
      4.72228557e-01 -6.67038023e-01 -1.51545480e-01 -2.19979435e-01
      -1.92404345e-01 -6.73554063e-01 -1.98058978e-01 -7.08793476e-02
      7.82177806e-01 5.21454871e-01 -1.68808913e+00 -5.35500407e-01
      -2.36455053e-01 4.05006036e-02 5.46837568e-01 -5.26527055e-02
      -1.93520412e-02 1.49461567e+00 1.55009687e-01 -1.00072265e+00
      -3.05543453e-01 2.88129915e-02 9.05167460e-02 -7.62618482e-01
      5.44483401e-02 5.44483401e-02 5.44483401e-02 5.05234241e-01
      -1.53501344e+00 8.60066041e-02 -7.08123803e-01 -5.76085508e-01
      -2.37804204e-02 3.88703138e-01 -5.20871878e-01 5.05234241e-01
      3.45797427e-02 3.45797427e-02 3.45797427e-02 3.02231997e-01
      -2.24693641e-01 7.72253573e-02 1.13063879e-01 1.03399996e-03
      3.45797427e-02</_>
    <_>
      2.49457359e-02 2.49457359e-02 2.49457359e-02 -5.42540252e-01
      6.67573586e-02 -7.05731288e-02 -7.47982487e-02 -9.95255336e-02
      4.72668186e-02 2.52514537e-02 -2.81172931e-01 4.68616709e-02
      4.05251086e-02 1.27310246e-01 -7.85613507e-02 4.61478591e-01
      -2.28857890e-01 2.52514537e-02 1.51423067e-02 -5.57318032e-01
      -6.04774952e-02 -5.59968390e-02 3.62414330e-01 -8.34003389e-01
      1.51423067e-02 6.00425042e-02 1.51423067e-02 6.29699752e-02
      3.59458327e-01 9.84763652e-02 -1.11919835e-01 5.57536893e-02
      -4.58555013e-01 -4.00597095e-01 -1.39260769e-01 4.37771857e-01
      7.51477718e-01 -5.11642396e-01 4.02704030e-02 -2.33305454e-01
      -4.70938265e-01 -9.22541857e-01 -6.82522535e-01 -4.88490999e-01
      7.51477718e-01 9.51034307e-01 -3.13905329e-01 -3.86836529e-01
      -9.59783733e-01 2.65196472e-01 -8.86805236e-01 1.71788961e-01
      -4.52849418e-01 1.00250101e+00 1.09266683e-01 -8.16711113e-02
      5.44497371e-02 3.45254391e-02 5.36457896e-02 -4.07522976e-01
      -5.76875824e-03 -5.76875824e-03 -5.76875824e-03 3.49599957e-01
      -6.21024191e-01 3.93433154e-01 -3.19554627e-01 -1.59377858e-01
      -4.63103563e-01 2.66371965e-01 -1.07298434e+00 3.49599957e-01
      6.22004978e-02 6.22004978e-02 6.22004978e-02 -3.98142070e-01
      -5.98861203e-02 -4.61266637e-02 -1.44182160e-01 -4.81302142e-01
      6.22004978e-02</_>
    <_>
      3.36899459e-02 -1.01417294e-02 -1.01417294e-02 -5.81267715e-01
      7.73668438e-02 1.25661209e-01 -1.96230769e-01 -2.41951570e-01
      1.63881361e-01 1.80090010e-01 3.17085385e-01 1.80569619e-01
      1.72014832e-01 -1.90154105e-01 -4.37954366e-01 1.83168665e-01
      -1.00410974e+00 1.80090010e-01 -1.20928092e-03 -2.51700848e-01
      -4.83043399e-03 -3.90043631e-02 2.37476900e-01 -4.24159616e-01
      -1.20928092e-03 -1.20928092e-03 -1.20928092e-03 5.06572500e-02
      9.15430263e-02 1.22105934e-01 2.21400019e-02 1.22105934e-01
      -7.27774978e-01 -5.66711903e-01 -1.76452119e-02 6.38392687e-01
      9.07781661e-01 -1.42542756e+00 3.10336709e-01 2.66280800e-01
      -5.01813650e-01 -9.75561917e-01 -1.32673264e+00 -5.09474337e-01
      9.42289948e-01 2.72679031e-01 -1.20631874e+00 -2.98595726e-01
      -1.71532810e-01 -9.75909643e-03 2.58574873e-01 -1.50573507e-01
      8.18751566e-03 1.28708696e+00 1.31422147e-01 -4.26237077e-01
      1.52379712e-02 1.29937425e-01 5.52413687e-02 -6.09480977e-01
      1.91502739e-02 1.91502739e-02 1.91502739e-02 5.68741739e-01
      -2.18603444e+00 2.20192801e-02 -1.83593154e-01 -2.17349529e-02
      -3.08631778e-01 4.49959904e-01 -2.29036674e-01 5.68741739e-01
      1.66700128e-02 1.66700128e-02 1.66700128e-02 1.63946360e-01
      -3.63966823e-02 2.26192400e-02 1.46309614e-01 -2.59236787e-02
      1.66700128e-02</_>
    <_>
      5.76785319e-02 5.64205050e-02 5.64205050e-02 -4.13176656e-01
      -6.20046258e-03 -9.74967033e-02 -1.91334948e-01 8.29543024e-02
      3.87032516e-02 6.74457252e-02 8.02570701e-01 6.74457252e-02
      -4.72842485e-01 -7.19737411e-01 -7.39236832e-01 -2.50898097e-02
      -2.32864454e-01 6.74457252e-02 -1.30589440e-01 1.33891714e+00
      1.31247187e+00 -2.09305212e-01 -1.07030891e-01 -6.04051173e-01
      -1.30589440e-01 -1.30589440e-01 -1.39115945e-01 -5.71263194e-01
      2.82440960e-01 -1.11929372e-01 2.11698532e-01 1.04853973e-01
      4.55868151e-03 -1.73675135e-01 -8.43738243e-02 -4.44803327e-01
      8.12018156e-01 1.13544273e+00 1.11588275e+00 -3.51745963e-01
      2.07722131e-02 -1.76914287e+00 -1.83844781e+00 -1.14518368e+00
      -1.56208407e-02 7.15787768e-01 1.11677384e+00 1.68252036e-01
      -6.65020585e-01 3.25722754e-01 -7.06055164e-01 -4.12113190e-01
      -4.61179048e-01 3.37636285e-02 -1.63576771e-02 2.79806294e-02
      -3.21916454e-02 2.96411128e-03 -8.88801962e-02 7.86475837e-02
      1.52430013e-02 1.52430013e-02 1.52430013e-02 -1.22290023e-01
      1.35041368e+00 4.91630524e-01 1.64366752e-01 1.59877241e-01
      -3.31305414e-01 -1.03405453e-01 -1.38447332e+00 -1.22290023e-01
      -9.02813002e-02 -8.82557854e-02 -8.82557854e-02 1.87764078e-01
      6.81995302e-02 4.91256773e-01 -1.50532141e-01 -3.32592934e-01
      2.56433308e-01</_>
    <_>
      -3.63204032e-02 -3.63204032e-02 -3.63204032e-02 7.96373427e-01
      -1.85213611e-02 1.12339430e-01 1.84612691e-01 5.23172617e-02
      -3.95419747e-02 2.78200507e-01 -1.16479099e+00 2.78200507e-01
      2.34625325e-01 -3.06449294e-01 -3.72452796e-01 4.32343960e-01
      -5.67543805e-01 2.78200507e-01 -4.93800603e-02 5.36651611e-01
      8.90595675e-01 -8.05546045e-02 -2.92086303e-01 -6.34247735e-02
      -5.82607053e-02 -5.82607053e-02 -2.44791266e-02 -7.94135392e-01
      -1.81866550e+00 1.13484561e-01 8.14932048e-01 2.47701436e-01
      1.11289275e+00 7.00731397e-01 5.94993412e-01 -5.31878889e-01
      4.27151948e-01 5.19341350e-01 5.92990816e-01 -6.00337446e-01
      3.98418665e-01 -8.57482314e-01 -4.43892390e-01 -6.80134773e-01
      -6.58038139e-01 -1.33196607e-01 1.14997840e+00 4.36894298e-01
      3.33168626e-01 4.42684084e-01 1.53482988e-01 -3.17858398e-01
      -1.67805541e+00 -1.38329840e+00 -5.13835158e-03 5.27769662e-02
      -4.37154770e-01 -3.38557303e-01 1.74022779e-01 3.51076722e-02
      3.14295501e-03 3.14295501e-03 -8.26462917e-03 -1.47875279e-01
      1.16310477e+00 2.75549084e-01 -2.14530617e-01 6.48466885e-01
      -1.69297993e-01 -1.37321383e-01 -1.12428856e+00 -1.47875279e-01
      -6.28324077e-02 -2.15996038e-02 -2.15996038e-02 3.99320245e-01
      3.37496668e-01 4.13530052e-01 -3.87171328e-01 -5.95352590e-01
      -1.28470495e-01</_>
    <_>
      -2.69955420e-03 -2.69955420e-03 -2.69955420e-03 -1.61850661e-01
      6.78305775e-02 6.81036562e-02 -1.92736741e-02 9.98828560e-03
      -8.98279846e-02 -3.37669021e-03 4.68015254e-01 -3.37669021e-03
      -2.89771464e-02 -6.32261634e-01 -6.69821382e-01 7.06398711e-02
      -2.45828703e-01 -3.37669021e-03 -8.68914947e-02 9.58362460e-01
      9.38770056e-01 -2.33520821e-01 -1.66206958e-03 -7.91885316e-01
      -8.68914947e-02 -8.68914947e-02 -8.68914947e-02 -5.28153360e-01
      1.65035084e-01 -2.91624576e-01 -6.43737257e-01 -2.41451800e-01
      4.85039294e-01 3.33077490e-01 7.53136337e-01 2.13740975e-01
      6.24454916e-01 1.23534715e+00 9.23752606e-01 -2.59435236e-01
      -1.28209129e-01 -1.35574889e+00 -1.44203126e+00 -9.18946683e-01
      1.48573462e-02 3.94826740e-01 8.99810970e-01 2.17787270e-03
      -1.23982704e+00 3.54371160e-01 -4.01679456e-01 -2.59450048e-01
      -1.50625883e-02 4.77583200e-01 4.41614166e-02 -5.99002168e-02
      -1.87585399e-01 -3.96518856e-01 -5.12342378e-02 -1.15440995e-01
      8.75147060e-03 8.75147060e-03 1.15801074e-01 -6.43501477e-03
      1.03727627e+00 8.96897912e-02 -1.60466731e-01 -1.54818594e-01
      -4.13550913e-01 -6.43501477e-03 -7.20021725e-01 -6.43501477e-03
      -6.94976151e-02 -9.16638598e-02 -9.16638598e-02 2.03683734e-01
      2.18720526e-01 6.04632020e-01 5.74876852e-02 -1.74650088e-01
      -9.16638598e-02</_>
    <_>
      -2.92460695e-02 -4.50144187e-02 -4.50144187e-02 -1.46293312e-01
      2.59094059e-01 1.24760576e-01 8.77450481e-02 9.43065286e-02
      -4.39745747e-02 -1.61961373e-02 -5.44413805e-01 2.93911938e-02
      4.57334131e-01 6.76145434e-01 2.62346596e-01 6.05708420e-01
      -6.99803412e-01 -1.61961373e-02 -2.10309148e-01 1.29512084e+00
      1.06349409e+00 -5.28464802e-02 1.59853354e-01 -1.79594785e-01
      -2.19201505e-01 -2.19201505e-01 -2.19201505e-01 2.91101515e-01
      -6.95083141e-01 -2.78219193e-01 -3.23968977e-01 -1.72937304e-01
      5.17367601e-01 4.26166564e-01 6.59477353e-01 8.38703990e-01
      7.40870893e-01 7.40507305e-01 6.53331578e-01 -5.08427858e-01
      1.20834894e-01 -1.18724656e+00 -1.30420947e+00 -6.59134269e-01
      6.82894811e-02 3.02317351e-01 8.24916005e-01 3.50908637e-01
      -1.28751123e+00 6.07213914e-01 -1.88491464e-01 -5.47073111e-02
      -1.26236749e+00 -4.32762384e-01 1.97083533e-01 2.09825356e-02
      -3.25565964e-01 -6.98137641e-01 -1.00414112e-01 1.38819829e-01
      -6.94529386e-03 -6.94529386e-03 3.21108885e-02 2.42105443e-02
      1.50442076e+00 1.71817437e-01 -3.03452581e-01 -4.85705197e-01
      -7.77692676e-01 2.42105443e-02 -9.35726583e-01 2.42105443e-02
      -5.34987524e-02 -5.34987524e-02 -5.34987524e-02 5.32861352e-01
      5.77905355e-03 8.75215292e-01 -8.21427330e-02 -3.42684925e-01
      -5.34987524e-02</_>
    <_>
      2.14128494e-01 7.11984411e-02 7.11984411e-02 -1.84432626e-01
      -2.89980829e-01 -9.80916500e-01 -2.04029500e-01 -2.88891107e-01
      1.89232901e-02 1.51502132e-01 1.89347476e-01 1.51502132e-01
      -2.75433511e-02 -6.08487785e-01 -6.49590373e-01 6.91656992e-02
      -7.21173823e-01 1.51502132e-01 -2.12548941e-01 1.82288826e-01
      1.42256343e+00 -1.03844667e-03 4.83454078e-01 -2.78513134e-01
      -2.12548941e-01 -1.64857358e-01 -2.41504341e-01 4.66836989e-01
      -1.82170808e-01 -3.75288844e-01 2.53844827e-01 -1.59328938e+00
      -1.57810226e-02 1.12137008e+00 1.18650723e+00 8.17518175e-01
      5.00392497e-01 -6.99961185e-02 8.34609717e-02 -1.47109762e-01
      -3.58889282e-01 -3.58719379e-01 3.34457215e-03 6.02133572e-01
      4.89217639e-01 -1.76391423e+00 -1.36612749e+00 4.48743552e-01
      1.76032022e-01 8.13048244e-01 1.88883650e+00 7.66404495e-02
      2.10915282e-01 -8.09163034e-01 2.98149109e-01 -1.99052548e+00
      -5.33602238e-01 -1.62969455e-01 -1.19908936e-01 -5.08932889e-01
      1.63292974e-01 1.63292974e-01 2.78039843e-01 -2.13972479e-02
      2.34004632e-01 1.19322967e-02 -9.05406475e-01 -7.18884990e-02
      1.17990375e-01 -3.70853990e-01 3.57196182e-01 -2.13972479e-02
      -3.38288307e-01 -4.69931290e-02 -4.69931290e-02 1.20380211e+00
      7.91473761e-02 1.33669305e+00 5.98760545e-01 6.47917867e-01
      -2.63781607e-01</_>
    <_>
      -8.46176781e-03 -8.46176781e-03 -8.46176781e-03 -2.75553226e-01
      8.33525583e-02 -9.98888686e-02 -1.80262309e-02 -2.01891124e-01
      1.10685326e-01 1.17677651e-01 -4.84424859e-01 1.17677651e-01
      4.58004892e-01 4.40399557e-01 -1.73837207e-02 5.75735688e-01
      -9.79984343e-01 1.17677651e-01 -2.25620538e-01 6.77997231e-01
      1.22488809e+00 4.01854813e-02 2.21681938e-01 -1.52112424e-01
      -2.25620538e-01 -1.94388077e-01 -9.70698074e-02 -5.39144456e-01
      3.22735518e-01 -1.53430372e-01 3.62002105e-01 3.40937674e-02
      -3.12211812e-01 -2.91543782e-01 1.14592649e-01 -7.46178105e-02
      7.15215564e-01 9.73643482e-01 1.21529686e+00 -4.42110568e-01
      -4.49485555e-02 -1.47014356e+00 -1.47684121e+00 -1.19941163e+00
      -2.15911344e-01 2.65906662e-01 1.38512003e+00 3.13411117e-01
      -5.89293838e-01 6.38203979e-01 -7.09923804e-01 -1.73175618e-01
      -1.03766978e+00 -7.41240025e-01 1.67971224e-01 -2.78306633e-01
      1.22431247e-02 6.95889369e-02 4.61025210e-03 -3.21073294e-01
      3.27499807e-02 3.27499807e-02 3.27499807e-02 -1.01892270e-01
      1.48204792e+00 4.87226576e-01 4.69501764e-02 1.11910343e-01
      -2.04889223e-01 -7.39881173e-02 -1.45899332e+00 -1.01892270e-01
      -6.77850842e-02 -6.77850842e-02 -6.77850842e-02 8.09078384e-03
      3.33369136e-01 6.50262713e-01 5.18619977e-02 -6.64854586e-01
      -4.15559858e-02</_>
    <_>
      4.03192500e-03 -2.51311455e-02 -2.51311455e-02 -3.67387861e-01
      2.36577436e-01 1.41746730e-01 2.20386733e-04 -2.50703186e-01
      7.34231174e-02 2.76277155e-01 5.42908490e-01 4.42805886e-01
      8.25765014e-01 2.06476495e-01 -9.83166575e-01 2.81447738e-01
      -2.37629485e+00 2.76277155e-01 -7.41523802e-02 1.02437592e+00
      1.09910893e+00 -1.71667039e-01 -1.67736679e-01 -3.33906323e-01
      -1.43688008e-01 -1.43688008e-01 -3.24280374e-02 -6.33669734e-01
      -2.47138783e-01 1.10702962e-01 2.69739470e-03 1.93269432e-01
      -1.91688593e-02 9.58016440e-02 -2.15121150e-01 -2.58881360e-01
      7.30882823e-01 7.34220088e-01 1.06496787e+00 -1.99864954e-01
      7.26467296e-02 -1.21633089e+00 -1.53617311e+00 -8.86282146e-01
      -3.20134282e-01 -9.81860101e-01 5.23639610e-03 5.99042475e-01
      -6.56660914e-01 6.81576133e-01 8.65953326e-01 -1.30298406e-01
      5.89333214e-02 -7.60725081e-01 1.01620063e-01 1.40451595e-01
      1.56190423e-02 8.09289142e-02 1.29145414e-01 -4.18196261e-01
      -2.04950050e-02 -2.04950050e-02 -2.25564148e-02 -3.25600803e-01
      7.84447044e-02 3.32222730e-01 -1.36400983e-01 5.01153111e-01
      5.12629412e-02 7.48796389e-02 4.37134624e-01 -3.25600803e-01
      -1.66107193e-01 -1.66107193e-01 -1.66107193e-01 4.91540670e-01
      3.70985746e-01 9.01255369e-01 5.17451823e-01 3.00154150e-01
      -1.16577499e-01</_>
    <_>
      -2.03142092e-01 -1.88234881e-01 -1.88234881e-01 1.21491277e+00
      5.47239631e-02 5.32690346e-01 2.78937012e-01 1.12720728e-01
      -2.94040050e-02 6.75087273e-02 -1.87877989e+00 6.75087273e-02
      9.19877708e-01 6.79418385e-01 1.64581850e-01 5.85795581e-01
      -2.29553372e-01 6.75087273e-02 -4.74302806e-02 -3.07154596e-01
      1.32666811e-01 3.29173267e-01 -4.54048425e-01 3.53190660e-01
      2.76153609e-02 1.00424878e-01 2.76153609e-02 -9.87781227e-01
      -1.85752535e+00 2.60209113e-01 1.56600460e-01 2.60209113e-01
      1.30057561e+00 1.10747123e+00 8.32470715e-01 -1.17779613e+00
      -3.92175049e-01 -6.15751803e-01 -3.65868807e-01 -2.82297969e-01
      3.30402097e-03 8.23089957e-01 1.29404283e+00 5.00829160e-01
      -3.24266851e-01 -8.97464097e-01 -2.01700658e-01 4.66910630e-01
      1.03168154e+00 -2.82575730e-02 1.29121315e+00 -9.81869735e-03
      -1.20645416e+00 -1.28099930e+00 2.75546461e-02 1.71198279e-01
      -4.44145799e-01 -2.47157544e-01 -1.27327992e-02 4.37173061e-03
      2.75546461e-02 2.75546461e-02 2.75546461e-02 -6.15756847e-02
      1.76788390e-01 -2.99008459e-01 -2.45009944e-01 4.89961743e-01
      3.53644431e-01 -8.21783692e-02 1.66073427e-01 -6.15756847e-02
      5.99588007e-02 5.99588007e-02 5.99588007e-02 4.83908534e-01
      1.92687765e-01 1.97520673e-01 -4.75903116e-02 -4.24220383e-01
      -3.76845002e-01</_>
    <_>
      -2.20109984e-01 -2.05202773e-01 -2.05202773e-01 1.09796631e+00
      2.66147964e-02 5.40121794e-01 2.77732283e-01 7.85627887e-02
      -2.05044821e-01 4.54892032e-03 8.82701874e-01 8.13911408e-02
      5.45615852e-01 -2.17450261e-01 -1.50014997e+00 2.95603007e-01
      -3.33418757e-01 4.54892032e-03 1.90243661e-01 -9.34864208e-02
      1.04426987e-01 -2.69737720e-01 -5.12074590e-01 -4.21954662e-01
      7.03108162e-02 7.03108162e-02 1.57316968e-01 -1.92277625e-01
      1.06316519e+00 -9.60901558e-01 -1.41226017e+00 -1.51148605e+00
      9.02555346e-01 1.09480548e+00 2.86652374e+00 1.01921260e+00
      1.07450628e+00 1.61716056e+00 1.04484546e+00 -8.26707184e-01
      -8.99954319e-01 -7.45730579e-01 -7.40456939e-01 2.14277089e-01
      6.92187011e-01 2.06033483e-01 -1.04103498e-01 -3.52814257e-01
      -9.80180025e-01 -8.96345899e-02 5.90229273e-01 -6.89743906e-02
      1.13494611e+00 1.07880223e+00 4.86247510e-01 8.98597121e-01
      -2.36118555e-01 -1.82095015e+00 -4.21677440e-01 -1.07552767e+00
      9.29870158e-02 9.29870158e-02 3.88963014e-01 2.99232960e-01
      6.20521486e-01 -1.10284185e+00 -6.26315236e-01 -1.25651240e+00
      -8.99797499e-01 2.75136799e-01 6.11154020e-01 2.99232960e-01
      -4.58354577e-02 -1.16421863e-01 -1.16421863e-01 4.06075567e-01
      2.56684631e-01 5.33538580e-01 5.05940616e-01 6.30057454e-01
      -3.43788028e-01</_>
    <_>
      -2.04170838e-01 -2.08396628e-01 -2.08396628e-01 5.58193386e-01
      5.12237906e-01 3.52115303e-01 2.74114996e-01 3.45022261e-01
      -1.16584249e-01 -2.06565365e-01 -1.70274198e+00 1.62424490e-01
      1.22895122e+00 2.55487442e+00 1.02918613e+00 1.28789699e+00
      -1.01396978e+00 -2.06565365e-01 -1.02883846e-01 1.61045060e-01
      1.71543702e-01 3.91391844e-01 3.39587688e-01 5.24547219e-01
      -1.54839590e-01 -1.54839590e-01 -1.54839590e-01 7.78145194e-01
      -1.03875768e+00 -2.15528890e-01 -1.40263033e+00 -2.15528890e-01
      8.16165328e-01 1.01174629e+00 1.05039370e+00 1.22327673e+00
      5.44052087e-02 1.48379207e-01 -2.81054854e-01 -2.32785895e-01
      1.46888942e-01 1.44941181e-01 -1.32330982e-02 -2.93485243e-02
      1.49835557e-01 -6.53869987e-01 -6.59760833e-01 7.03556687e-02
      -2.45121971e-01 3.26112658e-01 7.01169848e-01 3.09129775e-01
      -3.62444758e-01 -5.06717503e-01 1.99279085e-01 4.05333221e-01
      -4.97466832e-01 -1.35260260e+00 -6.55319989e-02 -3.80030036e-01
      3.62202339e-02 3.62202339e-02 3.28388751e-01 4.37784679e-02
      7.59642899e-01 -4.50158834e-01 -3.30084413e-01 -5.51281989e-01
      -2.24584520e-01 -8.76931753e-03 2.36960113e-01 4.37784679e-02
      -6.74646050e-02 -6.74646050e-02 -6.74646050e-02 7.19183326e-01
      6.36424962e-03 5.51164091e-01 5.58686852e-01 6.99157417e-01
      -2.95924395e-01</_>
    <_>
      1.01849928e-01 -2.93284748e-02 -2.93284748e-02 -1.62671935e-02
      -7.32649714e-02 -3.30460519e-01 2.50388503e-01 -1.27747327e-01
      6.74309954e-02 3.67739908e-02 4.99228276e-02 3.67739908e-02
      -1.04653589e-01 -1.16422921e-01 1.01355147e-02 3.67739908e-02
      8.75573978e-02 3.67739908e-02 -3.38504314e-02 -9.55865920e-01
      5.36841452e-02 6.01165533e-01 2.90790349e-01 4.97291237e-01
      -3.38504314e-02 -3.38504314e-02 -3.38504314e-02 7.72728920e-01
      -1.24419406e-01 -3.38498533e-01 2.10481480e-01 -1.11834669e+00
      2.43802190e-01 7.65936136e-01 6.91336453e-01 5.47857523e-01
      -1.60532027e-01 -4.94367987e-01 -5.33216715e-01 -6.73067212e-01
      -4.98729110e-01 9.96458054e-01 9.43984985e-01 1.07696438e+00
      2.67985523e-01 -1.38780928e+00 -1.00474977e+00 6.41897023e-02
      5.08074939e-01 1.53359532e-01 1.26120985e+00 3.05195004e-01
      1.58664167e-01 -2.88339943e-01 1.78670362e-01 -7.13832736e-01
      -3.28314751e-01 -1.15856521e-01 -1.03093743e-01 -1.20566219e-01
      3.31252962e-02 3.31252962e-02 3.31252962e-02 1.32874727e-01
      -7.49168754e-01 -4.01827186e-01 -9.68204856e-01 -5.61028302e-01
      7.04502538e-02 1.13990150e-01 1.16343188e+00 1.32874727e-01
      -1.34304315e-02 -1.34304315e-02 -1.34304315e-02 2.05875233e-01
      -3.25880423e-02 4.80963379e-01 4.16556925e-01 4.83201414e-01
      -1.98266149e-01</_>
    <_>
      -1.58429846e-01 -1.58429846e-01 -1.58429846e-01 5.33291578e-01
      2.12777704e-01 9.38158482e-02 3.48220557e-01 -1.10437942e+00
      -1.69582944e-02 2.60423839e-01 -3.27516866e+00 2.68942535e-01
      1.14787972e+00 4.00495195e+00 1.66742861e+00 1.13343370e+00
      -1.76935422e+00 2.60423839e-01 -7.00549334e-02 -1.01231158e+00
      2.02944145e-01 2.58353978e-01 6.04282081e-01 5.81389129e-01
      -1.59884185e-01 -1.12604648e-01 -5.86409271e-02 -6.18447661e-02
      -3.54613923e-02 2.15674266e-01 -7.20108390e-01 1.71146229e-01
      -6.57195523e-02 1.28896669e-01 5.91941811e-02 -7.13547707e-01
      1.26424301e-02 7.13483989e-02 3.72623414e-01 -1.38494444e+00
      3.14004064e-01 2.38955319e-01 2.06881881e-01 -2.05280244e-01
      -1.52295344e-02 -3.36390316e-01 7.68038154e-01 5.03481627e-01
      2.96992719e-01 9.53893363e-02 -3.43887985e-01 5.27386628e-02
      -9.62959323e-03 -8.80653560e-01 2.51965076e-01 -5.36078155e-01
      1.17545225e-01 4.71485109e-04 -2.47105360e-01 -5.76414347e-01
      7.52725154e-02 7.52725154e-02 7.52725154e-02 -1.52358055e-01
      1.78488600e+00 -4.37403828e-01 -1.94973916e-01 -1.15838684e-01
      1.17378616e+00 -2.78643638e-01 -4.28134680e-01 -1.52358055e-01
      1.23490296e-01 1.23490296e-01 1.23490296e-01 -3.47554773e-01
      -8.39964971e-02 6.67806715e-02 4.38517928e-01 -2.54983246e-01
      -2.49868840e-01</_>
    <_>
      -1.99492320e-01 -2.24419490e-01 -2.24419490e-01 4.74187911e-01
      6.07106686e-01 6.42376781e-01 2.77824610e-01 -4.69828010e-01
      -2.07875073e-01 7.77764693e-02 -3.12190980e-01 7.89055645e-01
      1.23661947e+00 2.24426341e+00 -1.88665524e-01 9.63428691e-02
      -2.41431832e+00 7.77764693e-02 9.27998498e-02 -6.80198014e-01
      -1.12728603e-01 -1.49986297e-01 1.33330286e-01 -8.94434303e-02
      -1.74196810e-02 -1.74196810e-02 2.11844474e-01 -2.14800015e-02
      -4.55121785e-01 1.67688519e-01 -2.68469881e-02 1.67688519e-01
      2.12426648e-01 9.56161171e-02 -1.44794449e-01 -2.41388157e-01
      -3.13439786e-01 -2.27284908e-01 3.62153023e-01 -3.19821499e-02
      -3.96595635e-02 2.12463096e-01 1.89122140e-01 3.88676465e-01
      -2.25448325e-01 -1.71592093e+00 -9.72120166e-01 6.47953629e-01
      4.67722476e-01 2.56664127e-01 9.93242741e-01 3.52859586e-01
      4.46965128e-01 -3.11234385e-01 1.95050433e-01 5.17497778e-01
      8.25402215e-02 7.58073553e-02 -9.46665034e-02 -3.00212860e-01
      -4.80140857e-02 -4.80140857e-02 -4.80140857e-02 -5.50767243e-01
      -1.23295963e+00 -2.79289663e-01 -2.90387303e-01 1.62019745e-01
      5.18695951e-01 8.41235220e-01 2.24184537e+00 -5.50767243e-01
      -2.14025438e-01 -2.14025438e-01 -2.14025438e-01 2.23944690e-02
      6.49326384e-01 2.94294268e-01 4.97860789e-01 8.63435566e-01
      -1.49569837e-02</_>
    <_>
      5.65057509e-02 5.65057509e-02 5.65057509e-02 -6.09034538e-01
      -8.06659982e-02 -6.70395195e-02 5.50137721e-02 -5.50929792e-02
      -5.53158931e-02 -9.66761708e-02 1.23010969e+00 -3.57597880e-02
      -4.24082875e-01 -2.35210925e-01 -3.70250136e-01 -3.85453790e-01
      -1.26650603e-03 -9.66761708e-02 -3.60641885e-03 2.25090146e-01
      6.53470978e-02 -3.92225027e-01 3.10216844e-01 -6.28226638e-01
      1.26078274e-04 -5.68917021e-02 4.85376967e-03 6.73471689e-01
      1.63224423e+00 -5.28932095e-01 -1.04947722e+00 -7.01853871e-01
      -5.10430336e-01 -2.90872484e-01 3.68639410e-01 1.33519983e+00
      2.78209746e-01 1.15529108e+00 8.07488501e-01 -2.89239913e-01
      -2.92657882e-01 -5.67309260e-01 -8.62023473e-01 -4.29614335e-01
      1.71258435e-01 5.76190889e-01 1.49084374e-01 -5.78762054e-01
      -1.34052694e+00 4.86681461e-02 -8.46005797e-01 2.29381993e-02
      1.52036917e+00 1.18278420e+00 3.64794508e-02 -1.91548523e-02
      2.57097483e-01 -2.47404337e-01 -1.18571386e-01 -4.69339527e-02
      -8.70346965e-04 -8.70346965e-04 1.20482229e-01 1.67068839e-01
      3.20828646e-01 -2.37604320e-01 -1.16772577e-01 -5.83045185e-01
      -3.84650558e-01 1.56514943e-01 -2.99297571e-01 1.67068839e-01
      -4.35884520e-02 -5.53168356e-02 -5.53168356e-02 -2.70174623e-01
      -7.98188820e-02 1.61728352e-01 1.32711649e-01 2.28643924e-01
      1.69562429e-01</_>
    <_>
      -2.96180714e-02 -2.96180714e-02 -2.96180714e-02 -6.22997820e-01
      2.18034983e-01 -2.93779317e-02 2.79022157e-02 7.68855738e-04
      4.65450883e-02 -2.82206267e-01 2.98058510e-01 -1.94900542e-01
      1.21391520e-01 1.39456451e+00 6.80178046e-01 3.18026662e-01
      -2.26013795e-01 -2.82206267e-01 -1.89936951e-01 1.57579646e-01
      1.06286243e-01 2.02477783e-01 6.74567699e-01 2.74346769e-01
      -1.88263983e-01 -1.88263983e-01 -1.88263983e-01 1.73728395e+00
      1.50888944e+00 -3.78312558e-01 -1.94115615e+00 -4.68605995e-01
      -8.47551286e-01 -2.23891705e-01 2.01670006e-01 1.98662519e+00
      5.60023129e-01 2.53599972e-01 2.72266299e-01 -3.31310332e-01
      -1.19668467e-03 -3.74916345e-01 -1.41434264e+00 -6.13406301e-02
      6.70424223e-01 3.76235843e-01 -5.86159229e-01 -3.31194818e-01
      -8.36106598e-01 4.11818743e-01 -8.19355667e-01 3.32947761e-01
      1.05725005e-01 1.09387457e+00 4.02216196e-01 7.17297345e-02
      -1.13012947e-01 -9.37482536e-01 -2.53878325e-01 -1.66370869e-01
      -2.56251376e-02 -2.56251376e-02 9.82947350e-02 2.00291157e-01
      4.92637187e-01 1.77859381e-01 -1.98476106e-01 -1.56054389e+00
      -6.51372433e-01 1.95655316e-01 -3.28297555e-01 2.00291157e-01
      -4.38085152e-03 -4.38085152e-03 -4.38085152e-03 1.89249981e-02
      -5.71135655e-02 1.04302347e-01 -8.61296356e-02 2.24950761e-01
      2.08330750e-02</_>
    <_>
      2.65587658e-01 6.74336255e-02 6.74336255e-02 -9.03605878e-01
      -1.45723000e-01 -4.98904616e-01 -8.91489163e-02 -2.49007091e-01
      2.91517153e-02 -1.00157209e-01 1.26172912e+00 -1.00157209e-01
      -6.51219010e-01 9.84554812e-02 -3.49965721e-01 -3.70195806e-01
      -1.86369106e-01 -1.00157209e-01 2.19639130e-02 -4.00402725e-01
      -5.71759604e-02 -7.92536587e-02 1.95285618e-01 2.56920338e-01
      2.19639130e-02 -2.97197476e-02 2.19639130e-02 1.19997931e+00
      1.44648230e+00 -3.51504236e-01 -5.03711700e-01 -9.98774111e-01
      -9.08727586e-01 -1.76150382e-01 1.25938982e-01 7.48747170e-01
      1.00010283e-01 -1.68050796e-01 -1.67195916e-01 -4.21484560e-01
      -2.28560492e-01 2.93367356e-01 3.79034907e-01 5.62067211e-01
      1.88235968e-01 -6.74174011e-01 -1.88050234e+00 -1.09665722e-01
      2.70820092e-02 2.11221352e-01 5.61322153e-01 4.87186313e-01
      9.26974475e-01 1.00212705e+00 2.20118329e-01 -1.11693084e+00
      3.70756648e-02 1.44145727e-01 -9.78281498e-02 -2.88811386e-01
      6.20801933e-02 6.20801933e-02 6.20801933e-02 6.28651902e-02
      -5.78255475e-01 3.08971275e-02 -7.72508919e-01 -7.95834243e-01
      4.16460901e-01 6.28651902e-02 8.92243207e-01 6.28651902e-02
      -7.55422888e-03 -7.55422888e-03 -7.55422888e-03 1.58945739e-01
      -1.94155231e-01 4.01013017e-01 5.69475174e-01 5.79135656e-01
      -7.55422888e-03</_>
    <_>
      9.59675685e-02 9.59675685e-02 9.59675685e-02 -1.55028296e+00
      1.39670223e-01 -1.03286430e-01 -1.97334662e-01 -7.13726223e-01
      9.14788023e-02 -6.29918426e-02 1.86077431e-01 -2.68341228e-02
      -4.09342647e-02 1.28264868e+00 9.09023583e-01 1.32548228e-01
      -7.34518409e-01 -6.29918426e-02 -2.31381476e-01 -6.69073761e-01
      6.75452203e-02 5.92157841e-01 9.58449066e-01 3.13819557e-01
      -2.22500831e-01 -2.23327801e-01 -9.39501002e-02 8.65755737e-01
      2.13449979e+00 -5.11433035e-02 -7.99638391e-01 -9.56713408e-02
      -1.57535565e+00 -1.19357073e+00 -9.27773952e-01 1.18369234e+00
      4.81185734e-01 4.80590910e-01 7.11003840e-01 -1.10216200e-01
      -9.94286686e-03 -7.57046223e-01 -1.34631133e+00 -7.56720245e-01
      4.30450052e-01 3.23344946e-01 8.02862197e-02 -4.78511125e-01
      -8.21258187e-01 2.65426606e-01 -9.40558612e-01 2.05982879e-01
      8.69835913e-01 8.30460906e-01 1.55682132e-01 -4.11150634e-01
      4.13129210e-01 3.51438165e-01 -8.96970332e-02 -2.21307382e-01
      -2.10104212e-02 -2.10104212e-02 -2.10104212e-02 9.96897593e-02
      -9.63863358e-02 3.93195361e-01 1.47819724e-02 -5.88855743e-01
      -1.58225060e-01 9.32640582e-02 -5.05850136e-01 9.96897593e-02
      2.46338849e-03 2.46338849e-03 2.46338849e-03 -4.71915722e-01
      -9.34889391e-02 1.51168600e-01 3.31486851e-01 9.65431929e-02
      4.69115563e-02</_>
    <_>
      1.12687103e-01 6.88554272e-02 6.88554272e-02 -1.15244269e+00
      2.17975125e-01 -2.41122335e-01 -2.43632764e-01 -6.87890112e-01
      9.09849703e-02 -2.08036005e-02 1.67251098e+00 1.71784192e-01
      2.65562028e-01 9.56979573e-01 -4.01486933e-01 -6.03973031e-01
      -1.42172015e+00 -2.08036005e-02 1.56354122e-02 -2.05184996e-01
      -1.81738645e-01 1.48032919e-01 4.22479719e-01 1.54084325e-01
      -4.32827733e-02 -4.32827733e-02 -1.92792982e-01 7.73184240e-01
      1.45559335e+00 -1.97594970e-01 -2.47061744e-01 -1.97594970e-01
      -1.07633805e+00 -8.41493428e-01 -7.15181768e-01 8.07944119e-01
      -1.88298374e-02 5.51787168e-02 3.98870856e-01 4.88515854e-01
      3.94789688e-02 -5.34080803e-01 -7.09128499e-01 2.50371844e-01
      -3.35683860e-02 -1.06649625e+00 -6.39139771e-01 1.93168879e-01
      -7.16045201e-01 2.04335406e-01 5.27703643e-01 3.50531191e-01
      1.22173476e+00 8.15833509e-01 2.00261906e-01 -4.98059303e-01
      1.35539100e-01 3.30839723e-01 -2.31612340e-01 -2.16892317e-01
      5.17303199e-02 5.17303199e-02 5.17303199e-02 -2.12446913e-01
      -1.42574954e+00 4.05448556e-01 -2.11486015e-02 -2.37000436e-01
      2.01912388e-01 4.49997187e-01 1.38635647e+00 -2.12446913e-01
      -5.85768297e-02 -5.85768297e-02 -5.85768297e-02 -3.15422803e-01
      3.60667408e-02 1.97034985e-01 5.62516510e-01 5.27511179e-01
      1.41031325e-01</_>
    <_>
      -8.57895985e-02 -1.45053312e-01 -1.45053312e-01 -4.51188870e-02
      5.50364196e-01 1.37180761e-01 1.13961078e-01 2.66922414e-01
      -4.57596174e-03 -2.63905097e-02 -1.78785586e+00 6.26793280e-02
      5.94085217e-01 2.16903067e+00 1.47959208e+00 1.15331423e+00
      -1.09433448e+00 -2.63905097e-02 -1.66328624e-01 3.52047324e-01
      5.56503013e-02 6.38856828e-01 4.97824103e-01 1.02963090e+00
      -1.96883768e-01 -1.96883768e-01 -3.73371750e-01 1.22684264e+00
      -1.12501872e+00 2.94476360e-01 -1.04976451e+00 6.03590906e-01
      2.69052356e-01 2.89102525e-01 -2.71550417e-02 6.64903581e-01
      -2.42079139e-01 -1.40772700e+00 -1.17863226e+00 2.77999669e-01
      7.93200254e-01 6.46950006e-01 5.26414752e-01 -2.04592764e-01
      -1.97073221e-02 -2.72425890e-01 -2.13146433e-01 1.95632681e-01
      8.12064111e-01 2.45771095e-01 1.67241879e-02 2.34476551e-01
      -1.29728687e+00 -1.11689973e+00 1.15764484e-01 1.29203156e-01
      -3.05034935e-01 -6.36628151e-01 7.40245953e-02 -1.68408483e-01
      7.40245953e-02 7.40245953e-02 3.18472460e-02 -1.57747284e-01
      1.61669955e-01 -8.28749463e-02 1.71145499e-01 1.92099378e-01
      7.54605353e-01 -1.57747284e-01 9.21843126e-02 -1.57747284e-01
      3.15001719e-02 6.07296340e-02 6.07296340e-02 7.55524278e-01
      -5.90116858e-01 9.34500396e-02 1.59223303e-01 1.56010240e-01
      4.44123372e-02</_>
    <_>
      1.54379681e-01 8.28947034e-03 8.28947034e-03 -3.34369004e-01
      -5.12256958e-02 -4.17920828e-01 2.42460873e-02 -9.70499292e-02
      2.35703275e-01 1.42748775e-02 3.95010233e-01 -2.21157875e-02
      -2.17895642e-01 1.90029051e-02 2.73532212e-01 -8.04414824e-02
      -2.95378286e-02 1.42748775e-02 -4.36598547e-02 -7.26107359e-01
      -1.62457034e-01 3.29668611e-01 5.46936929e-01 8.69142652e-01
      -7.80496141e-03 -7.80496141e-03 -1.89212158e-01 3.27418387e-01
      1.24153737e-02 -1.68274254e-01 8.45191896e-01 -7.32210100e-01
      3.51748094e-02 2.38596246e-01 6.74941763e-02 1.35250866e-01
      -2.57177562e-01 -8.90182614e-01 -7.36220300e-01 -3.00692856e-01
      -2.28607014e-01 9.44058597e-01 7.86172271e-01 9.51545417e-01
      -3.26975286e-02 -1.43338943e+00 -9.87854421e-01 2.79831171e-01
      8.72863710e-01 9.14184228e-02 1.18592334e+00 3.40657264e-01
      -4.29260209e-02 -8.13256741e-01 1.12548858e-01 -7.04616725e-01
      1.23566100e-02 3.36960196e-01 9.02434904e-03 -6.91337585e-02
      3.88039672e-03 3.88039672e-03 -8.44309330e-02 9.97026488e-02
      -1.10834777e+00 -1.21626228e-01 -7.02702820e-01 -3.44189167e-01
      4.31217223e-01 9.97026488e-02 1.00574267e+00 9.97026488e-02
      3.06419209e-02 4.62963283e-02 4.62963283e-02 2.83949077e-01
      -4.63184357e-01 8.49666297e-02 2.60812879e-01 4.43949550e-01
      4.62963283e-02</_>
    <_>
      2.64152605e-02 2.64152605e-02 2.64152605e-02 -7.21710742e-01
      9.65754017e-02 -1.53648615e-01 -3.52459885e-02 -4.60993826e-01
      2.84832746e-01 1.71990335e-01 -2.00264144e+00 2.04101413e-01
      3.27075422e-01 2.03684330e+00 1.57698655e+00 6.16337001e-01
      -8.34074020e-01 1.71990335e-01 -9.35694352e-02 -3.43645960e-01
      8.42292979e-02 5.29245198e-01 2.41089880e-01 1.09539843e+00
      -1.72512174e-01 -1.25232637e-01 -9.04635414e-02 1.08385883e-01
      -7.80609623e-02 6.85273409e-01 7.05235720e-01 6.91955984e-01
      -8.80286932e-01 -7.78435409e-01 -1.72843850e+00 -7.90407956e-01
      -4.80975866e-01 -1.15896249e+00 -2.21106172e-01 -2.85433885e-02
      6.55064285e-01 3.73089194e-01 5.92157304e-01 -2.84982324e-01
      -2.06372768e-01 -2.05318168e-01 8.20945024e-01 4.15501505e-01
      7.84656465e-01 7.53052011e-02 -6.41566932e-01 5.76127209e-02
      -7.71146297e-01 -1.09997761e+00 1.58900730e-02 -3.60661149e-01
      2.58540213e-01 1.17964089e+00 5.00122905e-02 1.62401110e-01
      -3.15879919e-02 -3.15879919e-02 -1.69559374e-01 -2.40468591e-01
      7.31406689e-01 2.01223388e-01 2.34377772e-01 5.91981292e-01
      1.13623011e+00 -2.18750477e-01 -4.18212205e-01 -2.40468591e-01
      9.87709165e-02 1.05683945e-01 1.05683945e-01 -4.86559033e-01
      -1.61931306e-01 -1.78849652e-01 5.13668992e-02 -2.73306638e-01
      7.63431862e-02</_>
    <_>
      -3.97401378e-02 -5.69090545e-02 -5.69090545e-02 -3.05134445e-01
      3.58883858e-01 9.01460573e-02 8.34525824e-02 -1.99887782e-01
      3.29551846e-02 7.79989809e-02 -1.60814494e-01 5.46080172e-01
      5.90307236e-01 1.68412650e+00 7.37151146e-01 -6.80621043e-02
      -1.88792324e+00 7.79989809e-02 6.89932629e-02 -2.31978819e-01
      9.37440097e-02 -2.96594258e-02 2.81534772e-02 2.27570429e-01
      -3.42419893e-02 -3.42419893e-02 1.67723224e-01 1.10196106e-01
      -2.11796090e-01 4.86695260e-01 8.01890194e-01 5.61473191e-01
      -2.07079783e-01 -5.47162950e-01 -1.57624221e+00 -5.60781360e-01
      -5.26718557e-01 -7.74722338e-01 -1.93878338e-01 1.41256154e-01
      3.39633942e-01 2.66889453e-01 4.07737762e-01 1.30986005e-01
      -3.42052788e-01 -1.24299490e+00 -6.28587663e-01 5.82670033e-01
      8.41303885e-01 1.61545679e-01 6.52152956e-01 1.76647216e-01
      -1.29160002e-01 -7.36707211e-01 2.75450069e-02 3.20095122e-02
      1.99604720e-01 7.64277279e-01 2.12935254e-01 1.38022810e-01
      -1.24835655e-01 -1.24835655e-01 -1.30722046e-01 -4.92896259e-01
      -1.51371777e+00 4.33383405e-01 -1.32363653e-02 1.85825303e-01
      8.55398953e-01 7.57299006e-01 1.42745459e+00 -4.92896259e-01
      -1.19026423e-01 -1.19026423e-01 -1.19026423e-01 -2.27457017e-01
      3.30240637e-01 2.95098815e-02 2.10837454e-01 4.48342353e-01
      2.40114763e-01</_>
    <_>
      1.60503238e-01 3.57075445e-02 3.57075445e-02 -5.76339066e-01
      -7.67576396e-02 -4.90192354e-01 -5.78516275e-02 -2.31175765e-01
      1.61963314e-01 1.14431873e-01 1.21065581e+00 1.90985873e-02
      -4.84318942e-01 -9.60628510e-01 -7.08480835e-01 -8.12879741e-01
      3.81534636e-01 1.14431873e-01 3.91853526e-02 -4.69701111e-01
      9.37528685e-02 4.10103798e-02 -9.96678099e-02 5.35751820e-01
      9.45380107e-02 9.45380107e-02 9.45380107e-02 -8.54881629e-02
      6.23591721e-01 -3.62809896e-02 6.23877823e-01 -6.48588777e-01
      -2.31162027e-01 -1.41287178e-01 1.45305276e-01 -4.20139015e-01
      -2.74535060e-01 -3.28366816e-01 -1.24648534e-01 -2.09683910e-01
      -3.92190725e-01 6.71895623e-01 7.18561649e-01 4.87998992e-01
      -2.31298730e-01 -1.04758704e+00 -1.29025507e+00 3.44294488e-01
      4.71896142e-01 -2.40026206e-01 1.49433374e+00 2.11159497e-01
      7.91911662e-01 2.17708468e-01 -2.57919338e-02 -1.20553493e+00
      -1.42098004e-02 6.16174638e-01 1.03692874e-01 -3.74164313e-01
      6.32682890e-02 6.32682890e-02 2.09303554e-02 4.87802550e-02
      -1.18851686e+00 4.04789709e-02 -7.18340278e-01 -2.45103380e-03
      7.01541185e-01 4.87802550e-02 8.79048765e-01 4.87802550e-02
      -2.64493898e-02 -2.64493898e-02 -2.64493898e-02 -1.65603999e-02
      3.54550369e-02 2.32515842e-01 4.76209760e-01 5.33408642e-01
      -4.60328981e-02</_>
    <_>
      2.94732481e-01 3.10500830e-01 3.10500830e-01 -3.39839190e-01
      -7.72176743e-01 -1.81880832e-01 -2.16625109e-01 -9.86702681e-01
      -1.22397020e-01 4.04843956e-01 2.86517255e-02 -3.18509430e-01
      1.29623488e-01 -2.28719786e-01 -1.02465183e-01 -8.46140385e-01
      5.98485880e-02 4.04843956e-01 1.20507143e-01 -1.40782249e+00
      -3.35914791e-01 3.09626069e-02 -1.72254831e-01 -1.65242038e-03
      1.48163229e-01 1.94960803e-01 1.48163229e-01 -1.26362753e+00
      1.64587998e+00 4.83308285e-01 1.54297471e+00 4.38780248e-01
      -1.02905321e+00 -1.23111308e+00 -1.44216776e+00 -2.95646930e+00
      -1.92649871e-01 5.49211502e-02 3.43858242e-01 -1.47379011e-01
      1.17725946e-01 -4.35941815e-02 7.70762488e-02 -1.29841670e-01
      -1.94457456e-01 1.68344408e-01 1.41927516e+00 1.77742299e-02
      5.20638943e-01 -3.29769731e-01 -1.01511800e+00 -3.29769731e-01
      4.18332607e-01 1.88009635e-01 -7.06341863e-02 -4.71018076e-01
      5.57413697e-01 2.02618170e+00 8.80431458e-02 3.98970127e-01
      -5.56926169e-02 -5.56926169e-02 -5.26581824e-01 -7.87474886e-02
      -5.24451613e-01 3.18150282e-01 2.88782835e-01 7.08817422e-01
      1.31546092e+00 4.92888838e-02 -4.59561914e-01 -7.87474886e-02
      2.12672263e-01 2.12672263e-01 2.12672263e-01 -8.70713413e-01
      -1.85090542e-01 -5.38187921e-01 -4.58289385e-01 -1.34975600e+00
      3.13481539e-01</_>
    <_>
      3.13430987e-02 4.71114479e-02 4.71114479e-02 -2.01073378e-01
      -2.74700057e-02 8.42131451e-02 -4.12287600e-02 -2.49252290e-01
      2.42627389e-03 1.99366525e-01 1.54649103e+00 2.92044669e-01
      3.79162610e-01 1.66926589e-02 -8.40031624e-01 -1.01898181e+00
      -1.15772641e+00 1.99366525e-01 2.12933734e-01 -3.10063928e-01
      -1.65879101e-01 -5.43035030e-01 -3.90993088e-01 -1.95111766e-01
      1.54997170e-01 1.54997170e-01 3.13060462e-01 -4.40157324e-01
      6.94748163e-01 1.83745533e-01 9.50454772e-01 2.35601112e-01
      -2.78569847e-01 -9.87501442e-01 -7.64047980e-01 -1.20352566e+00
      -3.63393456e-01 -1.25856131e-01 7.47037902e-02 5.78806043e-01
      1.01379082e-01 3.19674872e-02 -1.67339444e-02 7.87210464e-02
      -2.44341746e-01 -1.24744606e+00 -2.83225417e-01 3.88818115e-01
      2.98009664e-01 -1.58235043e-01 1.07649481e+00 -1.19726956e-01
      1.10123169e+00 -1.22591950e-01 4.14095782e-02 6.19797409e-02
      3.74877244e-01 9.05680418e-01 1.84105083e-01 -3.16856205e-01
      -6.07272089e-02 -6.07272089e-02 -1.84387654e-01 -3.14379185e-01
      -1.74436152e+00 2.32113376e-01 5.52750863e-02 4.51127589e-01
      6.76118016e-01 5.80084264e-01 1.43322277e+00 -3.14379185e-01
      -1.38907775e-01 -1.38907775e-01 -1.38907775e-01 -3.59566957e-01
      5.79981685e-01 -2.73647383e-02 1.15623847e-01 3.67051452e-01
      1.96134537e-01</_>
    <_>
      -1.59928203e-01 -1.32310893e-02 -1.32310893e-02 8.66893157e-02
      9.12820250e-02 4.90114391e-01 4.65069748e-02 -3.18005532e-02
      -3.29708047e-02 -5.41243814e-02 -7.58140862e-01 -5.41243814e-02
      4.36774939e-01 7.32748747e-01 3.73231709e-01 6.39753759e-01
      -6.04502082e-01 -5.41243814e-02 -5.58107756e-02 -2.89388541e-02
      -4.39119712e-02 1.17676750e-01 -5.67835830e-02 -4.44561690e-01
      -5.58107756e-02 -8.53123795e-03 7.27399662e-02 -6.11560583e-01
      3.27285416e-02 3.38486165e-01 -1.81240775e-02 1.02454507e+00
      -2.41319284e-01 -7.61601388e-01 -7.39208877e-01 -5.95768154e-01
      1.20433368e-01 4.32389319e-01 7.07076132e-01 2.62346148e-01
      2.72827744e-01 -7.63099432e-01 -7.40685105e-01 -9.83882248e-01
      -2.99927741e-01 7.53575861e-01 1.03717887e+00 -1.66620612e-02
      -3.22466701e-01 1.82580709e-01 -1.10167468e+00 -2.74770819e-02
      -6.16741121e-01 -2.53188133e-01 -4.87242490e-02 7.73389816e-01
      4.15778548e-01 1.12573788e-01 4.22261618e-02 1.44472063e-01
      -6.38792962e-02 -6.38792962e-02 -6.38792962e-02 -1.26135617e-01
      9.01759863e-01 2.32201666e-01 7.47573912e-01 6.29634738e-01
      -1.67289659e-01 -1.26135617e-01 -1.05924022e+00 -1.26135617e-01
      4.20715380e-03 4.20715380e-03 4.20715380e-03 -5.32171905e-01
      3.37864280e-01 -1.32352486e-01 -2.33867899e-01 -7.61392474e-01
      4.20715380e-03</_>
    <_>
      -2.32870385e-01 -2.70291008e-02 -2.70291008e-02 1.79225951e-01
      2.20940590e-01 6.90099537e-01 -1.07220434e-01 -1.33777067e-01
      1.58245787e-02 1.79450184e-01 -5.09433262e-02 2.47794420e-01
      8.47017586e-01 9.53565359e-01 -3.71166199e-01 1.98016584e-01
      -1.48764157e+00 1.79450184e-01 2.48099938e-02 7.18427181e-01
      -8.56533721e-02 -8.68218485e-04 -1.90866709e-01 -1.71237737e-01
      9.39716061e-04 9.39716061e-04 3.11841182e-02 -1.24491227e+00
      -2.81347692e-01 5.92121482e-01 -5.47476113e-02 1.45213115e+00
      -1.46702886e-01 -4.39612269e-01 -1.28230321e+00 -1.16485703e+00
      2.00254634e-01 2.43440583e-01 1.13925195e+00 8.49603951e-01
      5.26891053e-01 -1.04083610e+00 -1.21753407e+00 -1.07654047e+00
      -5.71583331e-01 -3.82295512e-02 1.00567663e+00 5.83525836e-01
      -3.34431171e-01 7.29138777e-02 -2.59237409e-01 -1.39188871e-01
      -1.62204653e-01 -8.90398860e-01 -6.56254441e-02 1.28544879e+00
      5.64432204e-01 9.96728837e-02 -2.95414496e-02 4.69189197e-01
      -1.30669162e-01 -1.30669162e-01 -1.30669162e-01 -2.86980420e-01
      -2.58181751e-01 1.24347106e-01 1.07056880e+00 1.26580751e+00
      9.49946269e-02 -6.12828918e-02 4.49593872e-01 -2.86980420e-01
      -2.38847416e-02 -2.38847416e-02 -2.38847416e-02 -2.24162936e-01
      2.01237589e-01 -1.08595319e-01 6.52093217e-02 -6.78318739e-02
      -2.38847416e-02</_>
    <_>
      -1.06729120e-01 -1.42016739e-01 -1.42016739e-01 4.27901447e-01
      3.41855347e-01 2.89852530e-01 2.23510802e-01 6.05948508e-01
      -2.08935976e-01 -4.53028642e-03 1.43116117e+00 7.65997469e-01
      5.84411323e-01 -2.45702654e-01 -1.42678690e+00 -9.28860784e-01
      -8.52894306e-01 -4.53028642e-03 2.56457776e-01 7.25552082e-01
      -1.41947493e-01 -8.34229767e-01 -3.11637074e-01 -5.01775682e-01
      1.23743877e-01 7.64643401e-02 3.18321317e-01 2.34111428e-01
      -1.70470208e-01 -1.23656817e-01 -2.03824237e-01 -7.91287795e-02
      3.61115634e-01 1.90719180e-02 5.39644286e-02 3.72921199e-01
      -2.91924477e-01 -1.56631857e-01 4.69891448e-03 5.08486569e-01
      2.73620896e-02 1.98394418e-01 -9.37332064e-02 4.11115766e-01
      -1.89387619e-01 -1.21908057e+00 -8.91383827e-01 4.24451560e-01
      2.38985419e-01 -1.97688729e-01 1.12432611e+00 -1.33791238e-01
      1.28880513e+00 3.99205208e-01 4.80471514e-02 4.92196023e-01
      -7.19508380e-02 -1.36611506e-01 8.23497027e-02 1.28291058e-03
      -6.84009194e-02 -6.84009194e-02 -6.84009194e-02 -5.92067778e-01
      -1.96236181e+00 -3.47922146e-02 -2.80997545e-01 -9.56385136e-02
      3.48056406e-01 9.10852075e-01 2.71771717e+00 -5.92067778e-01
      -1.98522717e-01 -1.98522717e-01 -1.98522717e-01 4.54073071e-01
      3.14118266e-01 3.35733742e-02 2.94376463e-01 1.20197880e+00
      1.83000848e-01</_></support_vectors>
  <decision_functions>
    <_>
      <sv_count>1</sv_count>
      <rho>1.2918813422367342e-01</rho>
      <alpha>
        1.</alpha>
      <index>
        0</index></_>
    <_>
      <sv_count>1</sv_count>
      <rho>5.3165682143170079e-01</rho>
      <alpha>
        1.</alpha>
      <index>
        1</index></_>
    <_>
      <sv_count>1</sv_count>
      <rho>5.6079382411558332e-01</rho>
      <alpha>
        1.</alpha>
      <index>
        2</index></_>
    <_>
      <sv_count>1</sv_count>
      <rho>1.6389858712175442e-01</rho>
      <alpha>
        1.</alpha>
      <index>
        3</index></_>
    <_>
      <sv_count>1</sv_count>
      <rho>2.9965441791336056e-01</rho>
      <alpha>
        1.</alpha>
      <index>
        4</index></_>
    <_>
      <sv_count>1</sv_count>
      <rho>2.5218162348501183e-01</rho>
      <alpha>
        1.</alpha>
      <index>
        5</index></_>
    <_>
      <sv_count>1</sv_count>
      <rho>3.2873845611623004e-01</rho>
      <alpha>
        1.</alpha>
      <index>
        6</index></_>
    <_>
      <sv_count>1</sv_count>
      <rho>1.1753033057510068e-01</rho>
      <alpha>
        1.</alpha>
      <index>
        7</index></_>
    <_>
      <sv_count>1</sv_count>
      <rho>4.9859623381401097e-01</rho>
      <alpha>
        1.</alpha>
      <index>
        8</index></_>
    <_>
      <sv_count>1</sv_count>
      <rho>1.0471047957811599e-01</rho>
      <alpha>
        1.</alpha>
      <index>
        9</index></_>
    <_>
      <sv_count>1</sv_count>
      <rho>1.3563465149389867e-01</rho>
      <alpha>
        1.</alpha>
      <index>
        10</index></_>
    <_>
      <sv_count>1</sv_count>
      <rho>-3.4838556760201828e-01</rho>
      <alpha>
        1.</alpha>
      <index>
        11</index></_>
    <_>
      <sv_count>1</sv_count>
      <rho>-1.3112999181715962e-01</rho>
      <alpha>
        1.</alpha>
      <index>
        12</index></_>
    <_>
      <sv_count>1</sv_count>
      <rho>2.7751444581265194e-01</rho>
      <alpha>
        1.</alpha>
      <index>
        13</index></_>
    <_>
      <sv_count>1</sv_count>
      <rho>-7.0459209955997873e-02</rho>
      <alpha>
        1.</alpha>
      <index>
        14</index></_>
    <_>
      <sv_count>1</sv_count>
      <rho>-4.7294930290988788e-02</rho>
      <alpha>
        1.</alpha>
      <index>
        15</index></_>
    <_>
      <sv_count>1</sv_count>
      <rho>-5.3437916011011818e-02</rho>
      <alpha>
        1.</alpha>
      <index>
        16</index></_>
    <_>
      <sv_count>1</sv_count>
      <rho>-3.0783278907268979e-01</rho>
      <alpha>
        1.</alpha>
      <index>
        17</index></_>
    <_>
      <sv_count>1</sv_count>
      <rho>-1.7204031310934029e-01</rho>
      <alpha>
        1.</alpha>
      <index>
        18</index></_>
    <_>
      <sv_count>1</sv_count>
      <rho>-3.8021089006122361e-01</rho>
      <alpha>
        1.</alpha>
      <index>
        19</index></_>
    <_>
      <sv_count>1</sv_count>
      <rho>-1.2312495590514386e-01</rho>
      <alpha>
        1.</alpha>
      <index>
        20</index></_>
    <_>
      <sv_count>1</sv_count>
      <rho>-4.5520830590136473e-02</rho>
      <alpha>
        1.</alpha>
      <index>
        21</index></_>
    <_>
      <sv_count>1</sv_count>
      <rho>-2.0695761045432656e-01</rho>
      <alpha>
        1.</alpha>
      <index>
        22</index></_>
    <_>
      <sv_count>1</sv_count>
      <rho>2.4082798232595504e-02</rho>
      <alpha>
        1.</alpha>
      <index>
        23</index></_>
    <_>
      <sv_count>1</sv_count>
      <rho>-1.5020045547970384e-01</rho>
      <alpha>
        1.</alpha>
      <index>
        24</index></_>
    <_>
      <sv_count>1</sv_count>
      <rho>5.1372551138695788e-01</rho>
      <alpha>
        1.</alpha>
      <index>
        25</index></_>
    <_>
      <sv_count>1</sv_count>
      <rho>3.4360309757692659e-01</rho>
      <alpha>
        1.</alpha>
      <index>
        26</index></_>
    <_>
      <sv_count>1</sv_count>
      <rho>2.2311308650460718e-01</rho>
      <alpha>
        1.</alpha>
      <index>
        27</index></_>
    <_>
      <sv_count>1</sv_count>
      <rho>-1.3351195002516811e-01</rho>
      <alpha>
        1.</alpha>
      <index>
        28</index></_>
    <_>
      <sv_count>1</sv_count>
      <rho>5.3188131380593373e-01</rho>
      <alpha>
        1.</alpha>
      <index>
        29</index></_>
    <_>
      <sv_count>1</sv_count>
      <rho>-1.2726441955211129e-01</rho>
      <alpha>
        1.</alpha>
      <index>
        30</index></_>
    <_>
      <sv_count>1</sv_count>
      <rho>6.5718962000698405e-02</rho>
      <alpha>
        1.</alpha>
      <index>
        31</index></_>
    <_>
      <sv_count>1</sv_count>
      <rho>9.7818420865729172e-02</rho>
      <alpha>
        1.</alpha>
      <index>
        32</index></_>
    <_>
      <sv_count>1</sv_count>
      <rho>-1.8341266153306010e-01</rho>
      <alpha>
        1.</alpha>
      <index>
        33</index></_>
    <_>
      <sv_count>1</sv_count>
      <rho>5.3896528905098495e-01</rho>
      <alpha>
        1.</alpha>
      <index>
        34</index></_>
    <_>
      <sv_count>1</sv_count>
      <rho>7.2908999862578566e-02</rho>
      <alpha>
        1.</alpha>
      <index>
        35</index></_>
    <_>
      <sv_count>1</sv_count>
      <rho>2.2329320089247573e-01</rho>
      <alpha>
        1.</alpha>
      <index>
        36</index></_>
    <_>
      <sv_count>1</sv_count>
      <rho>-4.9410669880241218e-02</rho>
      <alpha>
        1.</alpha>
      <index>
        37</index></_>
    <_>
      <sv_count>1</sv_count>
      <rho>4.0800405226227404e-01</rho>
      <alpha>
        1.</alpha>
      <index>
        38</index></_>
    <_>
      <sv_count>1</sv_count>
      <rho>2.3464640961791680e-01</rho>
      <alpha>
        1.</alpha>
      <index>
        39</index></_>
    <_>
      <sv_count>1</sv_count>
      <rho>-1.8037260434747768e-01</rho>
      <alpha>
        1.</alpha>
      <index>
        40</index></_>
    <_>
      <sv_count>1</sv_count>
      <rho>4.0949142689685275e-01</rho>
      <alpha>
        1.</alpha>
      <index>
        41</index></_>
    <_>
      <sv_count>1</sv_count>
      <rho>-3.6166878206155612e-01</rho>
      <alpha>
        1.</alpha>
      <index>
        42</index></_>
    <_>
      <sv_count>1</sv_count>
      <rho>1.1011568087527729e-01</rho>
      <alpha>
        1.</alpha>
      <index>
        43</index></_>
    <_>
      <sv_count>1</sv_count>
      <rho>7.1563143457059852e-01</rho>
      <alpha>
        1.</alpha>
      <index>
        44</index></_></decision_functions></SVM>
</opencv_storage>
